<?xml version="1.0"?>
<opencv_storage>
<opencv_ml_ann_mlp>
  <format>3</format>
  <layer_sizes>
    100 15 2</layer_sizes>
  <activation_function>SIGMOID_SYM</activation_function>
  <f_param1>6.6666666666666663e-01</f_param1>
  <f_param2>1.7159000000000000e+00</f_param2>
  <min_val>-9.4999999999999996e-01</min_val>
  <max_val>9.4999999999999996e-01</max_val>
  <min_val1>-9.7999999999999998e-01</min_val1>
  <max_val1>9.7999999999999998e-01</max_val1>
  <training_params>
    <train_method>RPROP</train_method>
    <dw0>1.0000000000000000e-03</dw0>
    <dw_plus>1.2000000000000000e+00</dw_plus>
    <dw_minus>5.0000000000000000e-01</dw_minus>
    <dw_min>0.</dw_min>
    <dw_max>50.</dw_max>
    <term_criteria>
      <iterations>3000</iterations></term_criteria></training_params>
  <input_scale>
    1.5264451233491231e+01 -1.4392881859622451e+01
    1.3430062191672436e+01 -1.2451227660705451e+01
    1.2083885664141937e+01 -1.1015045559357937e+01
    1.1577256693655517e+01 -1.0415109884465959e+01
    1.2350452426987502e+01 -1.1075361514656226e+01
    1.3666419656491160e+01 -1.2281459101176738e+01
    1.4030457622875502e+01 -1.2650454058898024e+01
    1.3580399276509608e+01 -1.2330372998355925e+01
    1.2858390070346413e+01 -1.1751396976102892e+01
    1.2075323507489074e+01 -1.1040142939775558e+01
    1.1209468696675154e+01 -1.0165574973352102e+01
    1.0461214674535901e+01 -9.3649900536516739e+00
    9.9530792949270843e+00 -8.8062890546153607e+00
    9.6176870387845312e+00 -8.4045080252408653e+00
    9.4017569430633525e+00 -8.1243949921777290e+00
    9.3166777052217657e+00 -7.9788794796696232e+00
    9.2307970149722482e+00 -7.8444959184998213e+00
    9.2393926436438321e+00 -7.7837455156437851e+00
    9.4207908873389190e+00 -7.8637211292200231e+00
    9.6854143237024797e+00 -8.0123806325687390e+00
    9.9049825948615062e+00 -8.1290499245547743e+00
    1.0044417969017749e+01 -8.1896510532986806e+00
    1.0257396459857608e+01 -8.3080828756002241e+00
    1.0514564682697916e+01 -8.4554946475741133e+00
    1.0762655640605930e+01 -8.5621167220346859e+00
    1.1003004677556579e+01 -8.6550143202297196e+00
    1.1125697593695596e+01 -8.6456941032454058e+00
    1.1375604574111961e+01 -8.7692596034004602e+00
    1.1452938022666819e+01 -8.7653605735909821e+00
    1.1407945994968770e+01 -8.6789365202345650e+00
    1.1101635497045784e+01 -8.3934872959505817e+00
    1.0635461968695383e+01 -8.0035842033371143e+00
    9.9234501983118690e+00 -7.4420586416518129e+00
    9.3095326322702086e+00 -6.9663878482520500e+00
    8.9725975501544522e+00 -6.6871947902081148e+00
    8.8822987017932782e+00 -6.5899949491589869e+00
    8.9128120987479935e+00 -6.5920772375252952e+00
    9.0529471952371576e+00 -6.6616917324539253e+00
    9.3110175987195625e+00 -6.8180814228043154e+00
    9.5916066872126642e+00 -6.9958940062553170e+00
    9.8842178471088236e+00 -7.1812378913909241e+00
    1.0060370753976104e+01 -7.2737340819417113e+00
    1.0377024317990941e+01 -7.5360063739444971e+00
    1.0544900490711106e+01 -7.6790752253859811e+00
    1.0915669134039664e+01 -7.9634543444058359e+00
    1.1356920647987202e+01 -8.2972991522860795e+00
    1.1705112047823825e+01 -8.5573775117798832e+00
    1.1923585432885984e+01 -8.7621525743601687e+00
    1.1575765570783128e+01 -8.5686230241420116e+00
    1.1446176635686317e+01 -8.5477934997111173e+00
    1.1761506034677470e+01 -8.8269885712096414e+00
    1.1977931907993884e+01 -9.0017985075626630e+00
    1.2220634791110930e+01 -9.2071794636580968e+00
    1.2056179765315992e+01 -9.1446487023289666e+00
    1.1860426516267367e+01 -9.1004022078478695e+00
    1.1774734370510901e+01 -9.0961643068320033e+00
    1.1916375488923379e+01 -9.2538589164114100e+00
    1.1669889609310575e+01 -9.1565087412633321e+00
    1.1282580046086611e+01 -8.9603623817144111e+00
    1.0683249044579558e+01 -8.5496880624655471e+00
    1.0546981698467723e+01 -8.4724203180208821e+00
    1.0480489350235647e+01 -8.4453625796594647e+00
    1.0612250603389608e+01 -8.5716740427970421e+00
    1.0636640375252874e+01 -8.6006244759263506e+00
    1.0832008092909046e+01 -8.7740321326457380e+00
    1.1032153461584565e+01 -8.9476284948544382e+00
    1.1074089915415913e+01 -8.9567840321318926e+00
    1.1300749295563287e+01 -9.0947109155263970e+00
    1.1752030278676084e+01 -9.4202680601228490e+00
    1.2315672132527581e+01 -9.8285559660727841e+00
    1.2960574680832458e+01 -1.0286413133825402e+01
    1.3540860910549155e+01 -1.0672811825005425e+01
    1.3999638633028724e+01 -1.0986546325389657e+01
    1.3524304614104622e+01 -1.0587707958189204e+01
    1.2611511029434849e+01 -9.8406562493972274e+00
    1.2296716850443550e+01 -9.5629347687452047e+00
    1.2323602060827785e+01 -9.5671943686944125e+00
    1.2201325655522428e+01 -9.4478167448833403e+00
    1.2144850140049206e+01 -9.3891349881920760e+00
    1.2221166750450408e+01 -9.4339345307991014e+00
    1.2319064831055588e+01 -9.4983825521017540e+00
    1.2259491636194898e+01 -9.4409595911633808e+00
    1.1799068689868667e+01 -9.1177063814042221e+00
    1.1169419091236152e+01 -8.7021911949787718e+00
    1.0742640022598520e+01 -8.4347237220424276e+00
    1.0228779716378705e+01 -8.1200026988361742e+00
    1.0047657383869113e+01 -8.0634995070152833e+00
    1.0135124058574634e+01 -8.1845649667450235e+00
    1.0248393656454290e+01 -8.2944234384938564e+00
    1.0490925154079749e+01 -8.5134581057725907e+00
    1.0947576922328425e+01 -8.9274187311034190e+00
    1.1612465214563706e+01 -9.5492349404145305e+00
    1.2243397951052533e+01 -1.0212021559360528e+01
    1.2212789331859906e+01 -1.0357416665678707e+01
    1.1643833373598198e+01 -1.0085940630920330e+01
    1.1150982567447038e+01 -9.8860123370069033e+00
    1.0545626295342865e+01 -9.5407602847647084e+00
    9.9885939352246140e+00 -9.1663398381595762e+00
    9.5022057181151407e+00 -8.8254426549151823e+00
    9.2895989037602735e+00 -8.6727992033656598e+00</input_scale>
  <output_scale>
    1. 1. 1. 0.</output_scale>
  <inv_output_scale>
    1. -1. 1. 0.</inv_output_scale>
  <weights>
    <_>
      -1.7100380160619957e-02 1.3241294263729898e-02
      1.1665427482627543e-02 1.2285777311133343e-02
      -1.0700647487349413e-02 7.3940910832438434e-03
      1.6508696963662265e-03 9.4577843292810767e-03
      -9.1130753051632887e-03 -1.1427761025005791e-03
      9.3268333219235795e-03 1.2373818553548556e-02
      2.4650426121785420e-03 -1.2300690729548886e-02
      1.4652431451782043e-02 2.7907290227507319e-03
      9.1386958199584957e-03 -2.6460858585581355e-03
      -1.4510731043266001e-02 2.9799595692545896e-03
      1.7270242160422191e-02 -2.8327608002443223e-03
      2.4495537081573233e-03 5.4123314304524994e-03
      -2.1987437828505851e-03 1.2670730302029807e-02
      8.3623190669969375e-03 -6.2810362373480807e-03
      -1.5819911553352686e-02 -3.1710023959196560e-03
      -8.5549059963386121e-03 8.1427412335575034e-03
      2.8769844983499273e-03 -1.0986489766638215e-02
      -1.1582196924014125e-02 -1.3981267480602364e-02
      -1.3993942814224178e-02 -9.1675342108483143e-03
      1.7698921437624530e-02 -2.4474219490659916e-04
      -8.0811922810454934e-03 1.3157519679249600e-02
      -1.7468029575416689e-02 -1.6848847868486633e-02
      8.8855220357617806e-03 -1.7011923089650466e-02
      -1.3730264096715293e-02 -1.7075261446867277e-02
      1.1036981061270320e-02 3.3421297675253064e-03
      1.8144842097815490e-02 1.7675656538153041e-02
      1.5271110511693199e-02 4.2093461474354251e-03
      -1.4102032875639638e-02 -2.2222268674761368e-03
      -1.8365232049257871e-02 3.2436149186144732e-03
      9.3959786298859621e-03 -2.2262191224108541e-02
      -1.4862860881816164e-02 -1.9615578426245197e-02
      -7.3271241898762891e-03 1.0687960191925463e-02
      -6.0934058618412690e-03 1.2067554453011997e-02
      -1.6979416183109036e-02 1.2723652032483396e-02
      -1.2165072700286737e-02 1.2776257987556536e-02
      1.8527872223241284e-02 8.3806278947903927e-03
      4.9388756817197775e-03 1.4131753773861239e-02
      -4.3100426709975111e-03 -1.1423711680262948e-02
      -3.2230440683400129e-03 -1.5388962389190989e-02
      7.6129971271867471e-03 -5.8974853379660267e-03
      4.9961714297080779e-03 -1.5419998081721760e-02
      -8.9479254809596113e-03 -7.6852003931736955e-03
      1.0806146019477032e-02 -3.9662764351597072e-03
      -5.3631455292826547e-03 -1.4656046000898319e-03
      1.4262595809722086e-02 8.9875958690580106e-03
      1.5153907735853844e-02 4.2652687170134894e-03
      2.2691990221705384e-03 6.0741947633335576e-03
      5.3502723234507398e-03 7.4492389721231801e-03
      1.5205993098725393e-02 -2.2917794865419411e-02
      -1.9986950221291683e-03 -1.9526145217993094e-02
      9.9463269097208890e-03 -3.3223906997177349e-03
      -5.6285712075920605e-03 -7.8532715608617947e-03
      1.5184326246847671e-02 -9.2411558586707691e-03
      9.3838098142561173e-04 1.8775677495916278e-03
      1.4843332325102456e-02 4.3795047603666414e-03
      -2.6333096477399211e-03 1.3965255164929306e-02
      -1.3292927762919389e-02 -1.0501501019070984e-02
      1.5261818794579277e-02 -6.8633212297945648e-04
      8.1934343777810108e-03 -2.9239973643266372e-03
      1.1706280704820434e-02 1.3911331772540425e-02
      -1.0637800253075246e-02 1.4862159091868875e-02
      -1.5050840480784495e-02 7.9541518601463929e-03
      1.5854913826003601e-02 -1.8131089325232115e-02
      3.7631549262922229e-03 -1.9874587652752081e-02
      1.3085045145010252e-02 6.3314395305306310e-03
      -1.7715546550646378e-03 -6.4061991580605252e-03
      -6.1105814200726844e-03 1.9692298275300155e-02
      -1.0350300849362391e-02 1.4040241949546136e-02
      2.0364560310428680e-02 -4.3483414459076470e-04
      1.1875368683604490e-02 1.6911300382087035e-03
      -8.8739204036997147e-03 -1.6291383192496154e-02
      9.5170074942009641e-03 1.3830280395741237e-02
      1.0570422984990837e-02 -6.6026871819543148e-03
      -1.0125159498266345e-02 -7.6045104183358747e-03
      -7.7215721005034418e-03 3.8724037379139794e-03
      1.6985336407328976e-02 2.2678053328968124e-02
      1.9032759066719845e-02 -2.1813298130940665e-03
      -1.1538568880512653e-02 1.6052280276185965e-02
      5.8094156940103848e-03 1.0642369525063133e-03
      -1.5736288760182602e-02 -7.8100918616766544e-03
      -7.8093954107657888e-03 1.5211401123963039e-02
      3.4046480536200760e-03 -4.6248187582391973e-03
      -1.2448321642171268e-02 4.5540256690809197e-03
      -7.4957241848985466e-03 1.7378704579212748e-04
      -1.8688749051465163e-02 -6.4610676425537047e-03
      -7.3058134911773093e-03 1.8895969403910546e-03
      -4.6915937075715907e-03 -1.6643305233918868e-02
      -1.5313056922913773e-02 -1.3343836479338631e-02
      -1.4586835167468607e-03 -1.9751730594026462e-02
      -1.5466933962659172e-02 -1.4948713941522848e-02
      -1.0291179711767245e-02 1.4289918697194728e-02
      -1.7930732287240903e-02 1.6565743161167431e-02
      1.4164663856824833e-02 5.3418093081695544e-03
      9.7516386895336715e-03 3.7495770859054532e-04
      -1.3836275243065145e-02 1.4046747325890856e-02
      -7.2297583632002236e-03 -5.6084409701390317e-03
      -1.6588033683951075e-02 -7.1018040948773293e-04
      1.4465383762048947e-03 -9.2742907822894963e-03
      5.3379722104673639e-03 6.2934705227196321e-03
      9.2096188669394397e-03 -1.6555170937211778e-02
      -1.1852007161930041e-04 1.0080196787610031e-02
      6.9586931023556536e-03 9.4965136560373180e-03
      -6.1420905913404577e-03 -4.2680783785135805e-03
      1.1051370269931691e-02 1.3544859298068380e-02
      1.5342325640169159e-02 -7.8323921887319750e-03
      -6.6067632385535448e-03 -5.4823879458870068e-03
      -2.1382058205729963e-02 -1.8470522567983410e-02
      3.0360469391072734e-03 -4.3690653178224785e-03
      1.7749673492360733e-03 6.3334377952541992e-03
      -1.4196989153818554e-02 5.4296662542365429e-03
      1.8251300820316424e-02 1.6872572170512249e-02
      1.2111424517898971e-02 -1.3870864994084561e-02
      -3.7608575860186666e-03 -1.0965597496496155e-02
      9.1796022342514345e-03 -2.5597698720437691e-02
      1.1083975143575838e-02 -6.7150920281071674e-03
      -1.2555913576238581e-02 -1.4652727986530023e-02
      4.3016347611616705e-03 8.2018763085769265e-03
      6.8594621837712458e-03 -7.6072623530167053e-03
      1.0171224670231804e-02 9.4439385931797334e-03
      3.1953585179344932e-03 -1.4773058342400251e-02
      -6.0732159536697672e-03 1.0918456511907168e-02
      1.0979135429198603e-02 2.5706460165483233e-03
      -1.1760073915337368e-02 -1.1158177051351156e-02
      -7.3483385259635464e-03 -2.9233996776278511e-03
      1.5219159206657380e-02 1.8221197211903004e-02
      7.0086305009490930e-03 1.8545943288742150e-02
      -1.5820977992382329e-02 -9.4027603468428630e-03
      -6.7075806543397285e-03 3.5501952043468792e-03
      -1.7788555982490004e-02 8.9241613451095572e-03
      2.6755306139032010e-03 -1.2836486480101260e-02
      1.7649959929263492e-02 -6.3618588330368025e-03
      7.8110252479190682e-03 -1.4500683209557179e-02
      1.9997488290537518e-03 1.8076058104076108e-02
      -7.7906731208913010e-03 -1.4546716253187257e-02
      -4.8847302589093422e-03 -1.3452601621766957e-03
      -4.8977391318983082e-03 1.3037613214332531e-02
      6.4016359387463933e-03 -2.6388270543191992e-04
      1.7168272022785012e-02 1.3421914405553322e-03
      -1.7386742004516127e-02 9.9645055921378650e-03
      1.2850152852118173e-02 7.5348123189858084e-03
      1.4266842910824492e-02 -7.9365778426971120e-03
      -1.4527815392492854e-02 -1.4185539522350145e-02
      -3.5906988371662966e-03 -7.0774421476487001e-04
      3.3823455002413580e-03 1.2176564911779205e-02
      6.9645445281848366e-03 4.3041043504752968e-03
      2.0133282214565545e-02 -6.9463913191054145e-03
      -8.0356999831315123e-03 -4.6289195273611769e-03
      -6.9610983970434604e-03 -9.4850375697657398e-03
      1.5726354630887250e-02 1.0194596804444910e-02
      2.0087581605210677e-02 -2.0185742993218317e-04
      1.9611793146721724e-02 -3.2250108417229591e-03
      -1.4722500591010502e-02 1.4404649473367453e-03
      -2.7030816115254648e-03 -9.8116889414554230e-03
      -1.5117302925432778e-02 -9.7762065968945346e-03
      -9.3879660523658089e-03 1.7987652626345337e-02
      -1.4798702887839224e-02 1.4499234887650050e-02
      6.2703892112720974e-03 1.8928571421299670e-02
      1.2882308951311278e-02 -5.5191082989082445e-03
      1.0334400198069867e-02 1.2942242789559938e-02
      -2.0011691931379680e-02 -4.9866842950495992e-03
      -1.7963426144812430e-02 -4.4108945608109093e-03
      2.5048081333495661e-03 1.1110305659616812e-02
      7.7374017701891760e-03 1.6114678976670918e-02
      1.0647324988980045e-02 -1.0941113184985382e-02
      -1.1565150661439646e-02 1.8144460268975048e-03
      -2.0729483438099673e-03 1.7534448521176946e-02
      8.3577639326910327e-03 -1.8867637256136521e-02
      8.7673392705328000e-03 -5.6773563695509798e-03
      1.1589447462848601e-02 -1.2037411131028899e-02
      3.8370120508076592e-03 -1.4207921270938985e-02
      4.2464156098988536e-03 5.5160965162758058e-03
      5.7558401073096004e-03 -1.9863224603572493e-03
      -1.7830777823236305e-02 -1.1605613250069355e-02
      -2.0188424254122886e-02 1.8875137737600009e-02
      3.1630588122507778e-03 -7.2315985829300069e-03
      6.5536269417943108e-03 -4.0004598814081631e-03
      2.3317704086644839e-02 4.1027987903387818e-03
      -1.1615499989550394e-02 -6.5947802703156654e-03
      1.1273259247919153e-03 -5.3892559007356839e-03
      -8.2376518128345691e-03 5.1464806271240551e-03
      1.3536722321573965e-02 -1.1003054130401261e-02
      -7.1666816968328842e-03 6.0583744263639312e-03
      -1.0757306719620229e-02 -3.8700645668055512e-03
      1.3025243983082288e-02 -9.2539033992217710e-03
      -9.4141361578969785e-03 -1.5814220862403642e-02
      1.7733033390868447e-02 -6.8534302535984346e-03
      -7.7258711041100683e-03 -4.7820552489946083e-03
      1.4394645258553884e-02 -1.6245066748934528e-02
      -5.5431225101862892e-03 -2.0615491605141856e-02
      -3.0168514073334856e-03 1.4413309238102587e-02
      -1.7414451373279967e-02 -8.4322352902250293e-04
      -8.0793361470356418e-03 -1.4393215328046046e-02
      -1.0101119234509844e-02 4.4130491069981461e-03
      -1.8642238808505459e-03 7.0821862607172298e-03
      1.5184716329277689e-02 6.7875352343503715e-03
      -1.3051429513561344e-02 -4.5271822017692092e-03
      9.0692092840133336e-03 1.0477238804088735e-02
      2.0019378925343967e-03 5.5902923521325811e-03
      8.1041054107546581e-03 9.6552376945022982e-03
      -8.4553117063392910e-03 -1.8006070813767177e-03
      -3.3597322800581440e-03 1.7190214612347226e-03
      4.6611802567041545e-03 1.0692153395076046e-02
      4.1081256379337525e-03 -1.7275689777349314e-02
      6.5238951267994469e-03 7.0184614626040091e-03
      -8.5913752617446781e-03 8.3854699872265501e-03
      2.1294487568004575e-02 -3.4859578142240272e-03
      1.0079888050283450e-02 -4.8216300389004735e-03
      -1.6336491027996527e-03 7.7624099885335949e-03
      -1.2274571582286967e-02 6.4762110707059844e-03
      -5.6871798912102641e-03 -1.3950766618949163e-02
      1.3967665251991493e-02 9.2138705419607641e-04
      -1.8082332825558548e-02 -1.5870888805983929e-02
      -8.7343510871148999e-03 1.4800624562083812e-02
      1.6395581212166908e-02 8.9707578220259650e-05
      1.0163499510814548e-02 -2.2771358532093527e-02
      1.4155073922991229e-02 -1.6971367157489901e-04
      1.6263550125686688e-02 -9.4179654310640997e-03
      7.0065734089452946e-03 -1.3083605792500144e-02
      2.9288642194200964e-03 1.6861034952317579e-02
      -2.3089618937316265e-03 -1.3615712859284748e-02
      1.2255711520965390e-02 7.1774574729529961e-03
      5.1339540839922078e-03 -7.7864918822797054e-03
      3.4185239848185103e-03 -1.6936364562057393e-02
      -1.3924081466244232e-02 5.1605789076158417e-03
      -9.9339033711915697e-03 -1.2142259360088781e-02
      -1.2893377368511557e-02 3.1477885589041073e-03
      6.3348171136290658e-03 7.2874148928169270e-03
      1.4573583398269276e-02 -5.3426134936252548e-03
      5.6778095578599516e-03 2.2599613646948531e-02
      -6.7266860490988283e-03 4.6739672760146879e-03
      -1.6518514612825373e-03 1.8106435497337117e-02
      9.5989253254419715e-03 6.4031209299405924e-03
      1.0950975759637287e-02 1.0013228227333059e-02
      1.1064287172443931e-02 -6.7808100764111682e-03
      1.0367813518592506e-02 1.0099801820903172e-02
      1.6442573294654313e-02 3.1184635355115870e-03
      -9.5973695242805891e-03 -2.7435886006823185e-03
      2.1043643147102150e-03 1.9970606799256590e-02
      1.5866191350771604e-02 6.4926479224601552e-04
      -2.0534874967163557e-03 1.1426752144337389e-02
      -4.3791225944740187e-03 -5.0873365412621905e-04
      1.7486014145072212e-02 -5.3671657599511664e-03
      1.8017411033045425e-02 -2.1270079189617198e-02
      3.3471101575284590e-03 2.0787820523199906e-02
      -1.8614497759877356e-02 1.5198622442230077e-02
      8.2741962526350857e-03 -1.4397980540213247e-02
      -1.2473447545277688e-02 -1.4091567784668923e-02
      1.2172369819527113e-02 6.0938756604103249e-03
      -8.2260758512054961e-03 -1.2213233162069742e-02
      8.1785453612177022e-03 -1.0379812293071087e-02
      6.7172298248763924e-04 7.9261569874362683e-03
      2.7986038111744212e-03 -1.2317384654497410e-02
      -2.0487410380628665e-02 1.1879232883251413e-02
      -1.0125026898836187e-04 9.9399524574478593e-03
      -1.5810312325685416e-02 -9.0425182385696808e-03
      1.3531408040960285e-03 1.0526370114625351e-02
      -1.0736674484198535e-02 2.5451652699689398e-03
      2.1617404480390248e-03 7.5873913771664176e-03
      -2.2599688254882261e-02 5.3315434978217155e-03
      -5.8070832637214503e-03 1.5564107973288823e-02
      -1.5875809740457263e-02 -8.6361471775453173e-03
      3.1881049506748403e-03 1.4889888520372145e-02
      7.1200629881397514e-03 -1.4938867734507661e-02
      3.7343823447163671e-03 4.3159628511246894e-03
      8.8742903554333008e-03 -5.1219507357320847e-03
      -1.5445299828196670e-02 1.3961964711670974e-02
      -5.3261621758741891e-03 -7.1890134838215455e-03
      -1.7916630221099791e-02 6.9789779946846896e-03
      -1.3710418034646071e-02 -1.2643947055263080e-02
      -1.9391191860097110e-02 1.5443939479661320e-02
      -8.0377045132152738e-03 8.8751539904543420e-03
      8.7286954082538596e-04 -2.0656619846832026e-02
      -1.5290908022215768e-02 -1.6359100240494961e-03
      -1.5271926856651075e-02 -8.7343697458826062e-03
      9.8442282443003681e-03 1.5554430664780895e-02
      1.4688240234750613e-02 -1.1174366891862951e-02
      1.1248813563972971e-02 3.3616942773757623e-03
      -3.1170826910562888e-03 1.3704054103727442e-02
      1.2997204049309196e-02 2.2083514253413129e-02
      -4.3438463466238369e-04 -1.9392691999660129e-02
      -4.7045449600546345e-03 9.4654509402073393e-03
      6.7647783474430179e-03 -8.4288613732102311e-03
      -9.7636296703483491e-03 1.1268824048059033e-02
      4.5986850141725076e-04 2.4356051370775318e-04
      1.2284497482495693e-02 1.3899384373172459e-02
      5.9830381048943480e-03 -9.7307033412563013e-03
      -1.4931642959802796e-02 1.1599676195113174e-02
      4.5782763597208729e-03 -1.6714085752641519e-02
      1.3443322198860706e-02 1.8062810598427213e-02
      -4.4572206827408964e-03 -1.4706315613890505e-02
      1.4070430489542825e-02 4.5725647129837730e-03
      1.8083531912356676e-02 3.1188109162789269e-03
      -1.8334082633768924e-02 1.1469375752081082e-02
      1.0910606613119822e-02 -1.7384038147006422e-02
      1.7836800513121597e-02 -5.9285395320861321e-03
      9.8522243314650543e-04 -1.5505234118124491e-02
      -5.6717471575340583e-03 6.4991151414230969e-03
      1.3448152522252468e-02 -7.1183130453511562e-03
      9.5327713900309938e-04 -1.4135734258493184e-02
      -1.2067676694100627e-02 1.9175471006198094e-02
      -1.7965246057564558e-02 7.4698274399716564e-03
      -6.8544935238853697e-03 5.6288019031641703e-03
      9.6606759858245948e-05 9.4148458051999929e-04
      1.6623605115218841e-02 1.6498870233398480e-02
      1.7673244666559035e-02 1.9016993508336530e-04
      -1.1208716422936369e-02 1.7251266777100070e-02
      -7.7686512496589416e-03 -5.6314007710788205e-03
      1.3062734094456567e-02 -8.2492309238212189e-03
      -3.8630632461921616e-03 -1.4372937114916324e-02
      -2.5147180176939279e-03 1.3404234698068670e-02
      -2.9811691235615760e-03 -1.6198431016034930e-02
      1.4957905124491340e-02 -5.1427663371656478e-03
      1.6613266828406203e-02 7.1004173641055881e-03
      7.1517535712061894e-03 -2.0415112436884961e-02
      -1.0004927504411015e-02 1.3148593177916159e-04
      1.3282224966303763e-02 8.7949347560251998e-03
      -9.2555410888768477e-03 1.5677243166727973e-03
      1.5144507869747564e-02 -1.1305041280879056e-02
      1.7354127078143617e-02 -2.1729204598614417e-02
      1.1348985977811468e-02 -1.2364505523502017e-03
      1.9669046403653870e-02 1.1093413624531650e-02
      -1.4052965198637085e-02 -4.2444295245504067e-03
      2.3772689214923972e-03 1.6711188983034718e-02
      1.5591513361548327e-02 1.1550743864824865e-02
      1.9570451365114799e-02 -1.5120947409679249e-03
      -7.0235238105744880e-03 8.4942692411168665e-03
      -2.2182694997941589e-03 1.0480209745644207e-02
      -1.6802384070883924e-02 -1.4295986923479312e-02
      -2.1249994424256216e-03 -1.5520431555231577e-02
      -7.7124639812418787e-05 -7.4382104439033557e-04
      -1.4955514909797362e-02 -1.2060210200251513e-02
      -7.3677535794465846e-04 -1.4693232373541908e-02
      1.5063028892953207e-02 -5.8033785360299284e-03
      1.7276866868730725e-02 9.2342401502345881e-03
      1.9214996617122168e-03 1.1020796821805633e-02
      1.2482328311511448e-02 1.4206178015776309e-02
      1.1722787218672391e-02 1.6147872560477363e-02
      3.9355357786505516e-03 1.8563026543032640e-02
      -3.7378665100747180e-03 8.2154168905067802e-04
      7.9454341744926819e-03 1.0312273808373344e-02
      1.8734487193856033e-02 1.1269822760744518e-02
      1.9081610462802934e-02 -1.2460401847199785e-02
      1.0349377966449757e-02 7.0922707240450361e-03
      1.3945917151717304e-02 7.4181917450698558e-03
      1.1184113629259600e-02 4.8489264141955701e-03
      -4.1205463192441494e-03 1.3800666804433044e-02
      2.1893105983781008e-02 -1.7773591625915460e-02
      1.4328152202184677e-02 -8.9543553232327106e-04
      -7.8280006695241079e-03 -4.1936244165889768e-03
      -1.6571443010666563e-02 3.8729712346122769e-03
      1.1633975883603589e-02 1.0799652399734608e-02
      9.0628238537761134e-03 -8.6599181444082362e-03
      -1.4458051911525856e-02 -1.5332588526705717e-02
      2.7941471910610622e-03 2.0467530849748866e-02
      -1.4796628732944633e-02 -1.8562328873001317e-02
      -9.7728358048518333e-03 -1.6665432336163143e-02
      1.7957102468814698e-02 1.0965346102962669e-02
      1.8316616144552468e-02 9.7963917299774637e-03
      1.9719297508238327e-02 -8.8344570500560032e-03
      1.2063250238255869e-02 -1.7681247088134362e-02
      6.0627453046268208e-03 3.8090378719924053e-03
      9.0885836724939031e-05 -5.1430913692476635e-03
      1.2656408934914687e-02 -2.2169764437041943e-03
      1.4999283379573347e-02 -1.1478786340279703e-02
      6.8777425802715939e-03 -8.3570833882939902e-03
      1.1620729754258700e-02 -9.9017646650555596e-03
      1.2596672087831063e-02 -1.8893796690763166e-02
      -2.1497171949146085e-03 9.4033332415886118e-03
      1.3846447734541729e-02 -1.7883386212301830e-02
      1.2014395141436153e-02 -2.4419569175838053e-03
      -1.5930718585259483e-02 1.2317634146874543e-02
      -1.6686219422020209e-02 -1.4677637140481510e-02
      1.3604413054750195e-02 6.2886982865391849e-04
      -1.6649593134287651e-02 -3.3789475962760036e-03
      -5.6855419535648964e-04 1.8482108167985845e-02
      -8.0015902889832482e-03 8.9523762303076633e-03
      -8.1257145002673042e-03 1.4442440331288872e-02
      -8.3576581717294575e-03 3.5914670192674332e-03
      -1.7594660877184986e-02 -5.3642050384767690e-03
      -6.9785862379639794e-03 8.8907914585811942e-03
      2.5518288931101504e-03 -1.0672848444512634e-02
      -1.0334683022615219e-02 6.7730915939765261e-03
      1.7692736361713268e-02 8.6256519724482502e-03
      -8.9573154874515882e-03 1.7647083862731512e-02
      1.9602431388023787e-02 8.6461367800822198e-03
      1.7305241708144765e-03 -4.4505695434310421e-03
      -1.1018251681333965e-02 -1.7109012454687787e-02
      1.6246374316492160e-02 1.7508650203139407e-03
      1.2642863119524764e-02 -1.0954371429999417e-02
      -1.7512918454913075e-03 1.2973949588328858e-02
      -4.0907442197439031e-03 1.3346073867412019e-02
      -1.8389527158445336e-02 1.6563255701601859e-02
      1.4374399675073233e-02 1.8071418664199559e-02
      -1.3746031116744144e-03 -2.0711211985209622e-02
      -6.6652939531361411e-04 1.5957408707355607e-02
      -1.1156865887797749e-05 -1.4591976213385630e-02
      -1.8605959397712993e-02 -1.8230723279929237e-02
      -1.5250108162575349e-02 5.7303524593800940e-03
      1.4839141106585591e-02 -3.3838521603275634e-03
      -9.2346008733393634e-03 -5.4954725157895065e-04
      -8.3295330456265495e-03 -1.5116847326074944e-02
      -7.8745501757566880e-03 1.0801634775185066e-02
      -1.3476462996905386e-02 -2.4727333091108597e-03
      7.2611083554767900e-03 1.6308404290815915e-02
      -4.9096307498371844e-03 -8.1835701644208947e-03
      -1.9186872081632972e-02 -1.4945921715868535e-03
      1.1809517465114159e-02 -8.0418271791804705e-03
      -1.4086881291432414e-02 -2.1496242627741267e-02
      3.9763301205544424e-03 -1.2944180912023571e-02
      1.6429375183915188e-02 1.0451136113205337e-02
      -4.9127053707777903e-03 -6.0550986706757355e-03
      -2.2062309359037805e-02 4.0875249913651735e-03
      -2.2826286750001184e-03 -5.7495938279828523e-03
      -8.7257275081900239e-03 3.7546791249315060e-03
      1.2615410404710017e-03 -1.9050440061032868e-02
      -7.8745023470480017e-03 6.8392533527098049e-03
      -6.8537581546379237e-03 5.5928394868213155e-03
      1.5382752358204453e-02 -1.6107359580820518e-02
      -1.4488118415640660e-02 7.7449616518961506e-03
      -1.4806992089703697e-03 8.7095327633205169e-03
      -4.9477282114417358e-03 -7.5117250800571080e-03
      -4.6378837020367592e-03 -2.1844353028316958e-04
      -5.8041716370326813e-03 -4.0867834122312375e-04
      1.1693697370812153e-02 -2.4842921690750308e-03
      -4.5702961083712249e-03 -1.7609734169229549e-02
      1.7656106342353775e-02 1.9527742173673042e-02
      1.2959921223039187e-02 4.9948219047744611e-03
      5.7116715486499360e-03 -1.2138746932971440e-02
      1.2243589533808892e-02 1.6430958027711447e-02
      1.7698826141927349e-02 1.9860987826751053e-02
      1.6097971727621792e-03 1.7094134036729214e-02
      -1.5870900641397703e-02 -1.2757664465175452e-02
      8.9802701696633166e-03 -1.4358719208632846e-02
      -6.9811492152509072e-03 1.4185822236095397e-02
      1.1255359032338210e-02 5.9484575232338650e-03
      1.1731503278365665e-02 -7.7669873512824514e-03
      2.0749505149645891e-02 4.6453140557923735e-03
      -1.2661634002937679e-02 3.3276665535571038e-03
      -1.3089006209039657e-02 1.3473555012760922e-02
      -6.9056304131641334e-03 4.7174571485483928e-03
      -1.2558163073224531e-02 -8.6295059657819292e-03
      1.2175569988310653e-02 -1.5777961836965042e-02
      -1.5582605070891882e-02 4.0506790590548094e-03
      -1.2591435815563979e-02 1.4481465411782966e-02
      -9.2707379807007509e-03 1.3989040652705833e-02
      1.5039623408849324e-02 -8.8535189282752252e-03
      -3.4096139858147841e-03 7.4655701326530486e-03
      -6.4276653261709756e-03 1.7602711509274213e-03
      3.6101446647015438e-03 -4.1558859360568282e-03
      1.9173754305065356e-02 1.6617508134007921e-03
      1.1020492071255449e-02 7.0656151972736522e-03
      -2.1768123727890047e-03 -8.1874187260902766e-03
      3.3278481109779256e-03 1.4432983783322235e-02
      -8.7163167835692511e-03 -2.1446892578225785e-02
      -4.1555125578858930e-03 1.4265315567808327e-02
      -2.5908613052461988e-03 -2.1598003027642504e-02
      1.6379058200046905e-02 -9.7591625922726147e-03
      1.6074533556768229e-03 -1.0903917650594451e-02
      -2.1305759354062100e-02 6.5604238966325340e-04
      1.3296684856723579e-02 1.9773146940973191e-03
      1.7277383462090620e-02 9.1493284620061417e-03
      2.1953990762578982e-02 -5.4359246357216133e-03
      7.2504794521236300e-03 -6.6932929855331533e-03
      -1.6351347067582861e-03 -9.6849332564594680e-03
      -8.6684653856549995e-03 3.1749122282585173e-03
      -7.5159945046710868e-03 6.8439199349658846e-03
      -1.1547466459942275e-02 -1.6912900671004181e-02
      1.5355811364017948e-02 -6.5358602423278471e-03
      -8.6279347513331904e-03 1.8613865753974519e-02
      2.2661144380245482e-02 3.0909204887114667e-03
      2.1463835215482580e-02 -1.1282411962417180e-02
      1.7930262283574409e-02 -1.9424495570919277e-02
      -1.8290840017613365e-02 6.7883636195155096e-03
      5.8438639775616899e-03 -1.3252607426212723e-02
      -1.7475295099698711e-03 4.6026158710022495e-03
      -1.5737620665051685e-02 -1.8132055910711771e-02
      -5.7865645528326604e-04 -9.8832980339736160e-03
      4.6382056388463849e-03 7.7276125996788951e-04
      2.1351082159511683e-05 -5.7376663294525041e-03
      7.5486040498987271e-03 8.4477560709740659e-03
      -6.8701226929041292e-03 -7.3101853942263186e-03
      -6.2698889861101323e-03 4.8898425583181818e-03
      -1.6745888545649137e-02 8.2249387228518923e-03
      -7.4119453939252523e-03 2.3608463825002549e-02
      -9.3142227437706688e-03 -1.9824288836002235e-02
      1.5108854080950447e-02 1.7581648497316912e-02
      -5.9670157088774246e-03 -2.2615907094311939e-03
      1.0868048672655601e-02 -1.0716762030993318e-02
      5.3324128670987330e-03 -1.8798141761722904e-02
      8.4512962885335084e-03 -1.1394192294398581e-02
      -9.1551046255707817e-03 -1.0544680722897279e-02
      -4.1683274824782218e-03 4.5600274331942664e-03
      1.8298590809959615e-03 -1.9886767606921849e-02
      1.6380886147709998e-02 -9.0425721691134719e-03
      -8.1736966059177598e-03 -8.7688536312772597e-03
      1.6000684327340402e-02 1.1347119160082483e-02
      -1.3805904859044798e-02 -1.4417761459780624e-02
      -1.8094480169329633e-02 1.6728207862456969e-02
      -4.5814271569326170e-03 1.2794303413487704e-02
      2.1839479292165482e-03 -4.0664035859717864e-03
      4.3000733795296089e-03 -1.7036790052579250e-02
      1.8477823420471422e-02 -4.4095263007288086e-03
      4.2856183099767558e-03 -1.1191493193659323e-02
      -3.5218917585488141e-03 8.2407571357769570e-03
      1.1860581119906754e-03 5.9866203177587930e-03
      -4.0872911505919729e-04 2.1792586112551874e-03
      -1.9665152500177075e-02 -1.4590364099817840e-02
      -1.1554980113474441e-02 -3.4571110216231092e-03
      -1.7748160087542809e-02 -7.2748322561408535e-03
      9.8278754199774155e-04 -7.9876186655468348e-03
      8.8564653618933824e-03 -7.7475256471310700e-03
      1.6798670540440722e-03 1.4292101340672788e-02
      2.4023936298893335e-03 1.9704231942672505e-02
      -1.8019511367299058e-02 -3.6536230405897958e-03
      1.8791277399869955e-02 1.1263854731224019e-02
      -1.0982226031605357e-02 -4.9018680677719887e-03
      1.0471892379391119e-02 -9.3917654390439278e-03
      -1.0998103809081462e-02 -1.3023067531699125e-02
      -3.3056196446933123e-03 1.1712047841722792e-02
      -1.7365792702954217e-03 -1.0576467086935376e-02
      6.4059356609870444e-03 8.2181719939099507e-03
      1.5710832276543407e-02 -1.1131436696377580e-02
      5.7414393453099396e-03 -5.0835602331191735e-04
      -5.9197300529044536e-04 -1.4853708110303258e-02
      -1.0406019800840743e-02 1.1379386621172582e-02
      -1.3456020740862598e-02 6.8687448525561199e-03
      2.8419627963905238e-03 1.5027917408213860e-02
      -1.6918316026146726e-02 1.4709454337644536e-02
      7.0935247635745173e-03 -9.7257876779739596e-04
      -1.7111582967823415e-02 -2.6883189209341743e-03
      -2.0685161799734481e-02 -1.1771292462629885e-02
      -1.0991246189294927e-02 -3.4099861020594070e-04
      9.9965948869038708e-03 -1.3623968806052355e-02
      -5.5195630990815319e-03 -1.6608369997426081e-02
      6.1717606042618733e-03 1.5073810843418030e-02
      -4.8118156461792704e-03 8.8194391239384759e-03
      3.1034845854701694e-03 9.3176890936991375e-03
      -2.4202872213026578e-03 1.3197862254515788e-04
      7.0873504128268075e-03 -8.3613906555455517e-03
      7.2574501607347939e-03 1.7160056081920463e-02
      1.3362035284201771e-02 -2.4429316132417781e-02
      6.7618228523676147e-03 -6.6028647699505841e-03
      -8.8465539594475544e-03 -8.4409915268817970e-03
      9.8605410062719556e-03 2.0404324888322743e-02
      1.2410732778647338e-02 1.2231426540385885e-02
      5.8958102141895450e-03 8.1440032243909471e-03
      9.5897095184143688e-03 1.4826124275433374e-02
      -1.0843472604087544e-02 -8.7592664617172841e-03
      -6.8786870094809443e-03 -6.6184146538597194e-03
      -1.1890638606901886e-03 -1.2320154016645945e-02
      1.7588509211070467e-03 -8.3912495333693328e-04
      -6.9320360466021552e-03 7.0047825883768830e-03
      1.6675948487226245e-04 1.3592793794108760e-02
      -1.3801035275345645e-02 -1.6649807200110403e-03
      4.5030938230167076e-04 2.8825555939276546e-03
      -8.1560640636944171e-03 1.4721987137962642e-02
      1.1494432677475176e-02 4.4118280462842539e-05
      1.7471370154834867e-02 1.9400928179370551e-02
      -5.6809155179086742e-03 -9.4071175946875522e-03
      1.6528087727314948e-02 4.5453543241257581e-03
      7.0956938487729722e-03 6.1050228663437458e-03
      1.8108918178431734e-03 -4.7637076682261583e-03
      1.2795969006885359e-02 3.6275716041209924e-03
      -2.6944309504817634e-03 1.4899883475483360e-02
      -1.2159487441415548e-02 5.9283312152305818e-03
      1.3149610327046578e-02 1.8114153902396648e-02
      -6.8146530245014247e-03 -7.8405773137705664e-03
      9.3381719111085785e-03 5.2272117824030909e-03
      1.5570429227814946e-02 1.5720170317686060e-02
      -1.7200329201568512e-02 -1.8909316927466568e-02
      8.3605991566463363e-03 -1.9541916642316606e-02
      -4.4172736920855809e-03 -1.2082156348042912e-02
      -1.3508635928411334e-02 -1.3968211630738407e-02
      1.0705417010088140e-02 -4.9492229970559002e-03
      1.8111465491013473e-02 -1.3928459039686756e-02
      -8.1490346540421064e-03 -1.7974143987151411e-02
      -5.8652791190552224e-03 -2.9791517457523355e-03
      8.2278157894420684e-03 -7.7801338074488637e-03
      6.6757615258130152e-03 5.4535542547490962e-04
      1.0273755577038123e-02 -1.5942708351399586e-02
      -1.4372121782810037e-02 7.6849403692276696e-03
      1.0473166833058881e-02 -1.2817076182971962e-02
      1.5376913600642537e-03 6.1195444622880665e-03
      1.8223909701936318e-02 -1.1012488367863123e-02
      -1.6743334101670886e-02 6.3928323846253257e-03
      9.6745036950440025e-03 1.2602568694463885e-02
      -1.2593092322092509e-02 2.5413730796446559e-03
      3.2424692883503735e-03 2.1370732655803092e-03
      3.4609103716699073e-03 1.2938790543425754e-02
      1.8600361062685981e-02 5.0873231929536196e-03
      4.3664605173957191e-03 -1.8814036491403150e-02
      -1.7323067057158005e-02 -1.7565557130219692e-02
      -5.3777373081914034e-03 5.5826791281643751e-03
      1.5737182660269397e-02 9.9776252817337149e-04
      1.5423593162746791e-02 -1.2449185419651716e-02
      7.6255916900604846e-03 1.6104840621175832e-02
      -8.1367887069072366e-03 1.4317576514721439e-02
      4.4349763887984433e-03 2.6008110782258899e-03
      1.5008359166021158e-02 8.6098929204778650e-03
      1.7092849874354273e-02 9.2743302169214920e-03
      -1.4297995500341384e-02 -4.0490270566176725e-03
      -1.4217944796958931e-02 -1.7611043971380233e-02
      -1.7615175760014597e-02 1.7620533693827160e-02
      1.3428264102824368e-02 2.7415056236338919e-03
      -1.0801832979686342e-02 -1.4616418804337119e-02
      1.7264926569677871e-02 -6.0118388895790331e-03
      -2.2903274863860104e-03 1.9682534074705899e-03
      1.8605183050181121e-03 -1.0712335193371314e-02
      -1.2837103972601280e-04 -1.0619445389214957e-02
      -1.5929832383736388e-02 6.8995957577549115e-03
      1.3217722608569755e-02 -1.4360343223917741e-02
      -1.3427218819320139e-02 -9.8471027439848806e-03
      -5.3211345912853418e-03 8.8308220924567995e-03
      -1.7187940919348572e-02 -5.0125904135494568e-03
      6.5936419164504007e-03 -1.6698991605542914e-02
      -2.7192103336555768e-03 3.1769529628217974e-03
      -1.5022139672451904e-02 -3.3954590897782139e-03
      -7.5550438467666976e-03 6.1875934553819109e-03
      -8.0610018493818391e-03 2.6367235775965189e-03
      -3.1062865166700212e-03 -1.2950914115936421e-02
      1.6111280510148873e-02 5.3426279915634346e-03
      -8.4560245075078790e-03 2.1233366324046422e-02
      1.2709055363658040e-02 -4.3545302016941940e-03
      -4.2584797543139654e-03 -4.0924290454651445e-03
      1.1308647835617969e-02 -8.4962674523153120e-03
      2.3572947009632059e-02 4.9051274476488290e-03
      1.8347858715480148e-03 -1.5782904555730101e-02
      -1.4459386513997329e-03 1.1392401045321259e-02
      1.3427901037369979e-02 -1.7862285235122774e-02
      -1.4243431430132458e-02 -1.5046407849394065e-02
      -9.3301649758266800e-03 1.6230638814950502e-02
      1.4398470950704736e-03 -3.6702222849707756e-03
      -1.3103270209407559e-02 -1.4720170085330700e-02
      1.1811312043802197e-02 6.7743110798836083e-03
      1.5490330215602199e-02 -8.1750234170828526e-03
      2.1252950805765461e-02 -1.6967501050632959e-02
      -6.0742244870410815e-03 2.0166504386942251e-02
      1.0691935992175588e-02 -6.4495516440580981e-03
      -1.8297066944088974e-02 -1.1842622133986533e-02
      -2.9817139112200707e-03 -2.5197978586038229e-03
      1.7080122490856661e-02 -7.2651209647596185e-03
      1.4409031063784231e-02 -6.2150726177042709e-03
      4.7859599599205062e-03 1.6343264753031141e-02
      2.4692622920785608e-03 9.8496955105649101e-03
      -1.9601445924670436e-02 -1.0371501686854126e-02
      1.8836162415885312e-02 1.1491047457459151e-02
      1.0538407818343103e-02 7.5139759652627126e-03
      7.6664996132508219e-03 -2.0189978555592539e-03
      -6.9339992676736720e-03 -5.6653052057520272e-03
      -1.0298817243043136e-02 -1.8717847802135628e-02
      -7.2668887698996085e-03 -6.5657674681033323e-03
      3.0378407848042303e-03 -1.4419253078165170e-02
      -4.7584441786844064e-03 1.3202774478096173e-04
      -1.2249203239294938e-02 3.4687993562462402e-03
      1.4605814727042823e-02 -1.5181688730768464e-02
      2.9271312458019785e-03 1.0718135753760100e-02
      1.5409300762752173e-02 -7.6810706009355183e-03
      -1.0986170398208081e-02 -3.4214648225451998e-03
      -1.4789479294850325e-03 1.3487184483740561e-02
      -1.8377004480667938e-02 8.1110120963488273e-03
      -8.6913535527961827e-03 2.2064395531308810e-02
      -2.2323602275935409e-03 -6.0326734087262305e-03
      -7.0243281696389563e-03 -1.2832950021411006e-02
      -1.1438324564525643e-02 1.5541123225142768e-02
      5.6207221034799007e-03 -1.1507336178750313e-02
      -1.4555423724960456e-02 -1.3344250131359550e-03
      -2.2697303724886200e-03 4.6604680119332869e-03
      -2.2283870465764676e-03 -5.9872513791232240e-03
      1.3605891461968190e-02 1.1425335728183600e-02
      -1.8626474574220214e-02 -1.2100084143445133e-02
      1.5548445000113329e-02 5.2940183300017778e-03
      -8.2264692405884323e-04 -1.1772950721663341e-02
      -1.4740198105428988e-02 1.2518474295814954e-02
      6.0388417353285763e-03 -2.1458696398874058e-02
      -8.9227130387770307e-03 -1.1028062889594056e-02
      -1.0935007007373987e-02 2.7297624871596014e-03
      6.3886955184552204e-03 7.8062990071064726e-03
      -1.1614704748139788e-02 -1.1677203140492790e-02
      6.2817062846140777e-03 -1.7133318306271041e-02
      -1.8547605694619773e-02 1.1327206592131919e-02
      1.9356676224907665e-02 1.5976292530106052e-02
      -1.8803098428225865e-02 2.0595803641895472e-04
      9.1131164837955567e-03 7.1054748162503638e-03
      -2.0812683587345074e-02 -4.1073452916682495e-03
      -1.3489585068753130e-02 -7.4043567730280929e-03
      1.2669271850056745e-02 7.9730049580695028e-03
      -3.7379085034749710e-04 3.4469147766531534e-03
      1.3317926313164112e-02 3.9321715165031189e-03
      1.6244938539384520e-02 8.3638971281440235e-03
      -4.3016336987793452e-03 1.8506049982971968e-02
      -1.3403081546291055e-02 -1.8867639648275696e-02
      -7.8628008852293547e-03 6.7542410778017523e-03
      7.1564957764724416e-03 -7.4099880649200782e-03
      1.1391700309993157e-02 1.2489714176886976e-02
      -6.7064798537458123e-03 -1.5614341114285316e-04
      -1.5908762014848529e-02 -6.6078694978318683e-03
      -1.8812706591988002e-02 1.4957158007679801e-02
      -8.0480667164686409e-03 -9.5363911372452399e-04
      1.8662515386352378e-02 1.2780427764997522e-02
      -9.9738600001584871e-03 -2.1133610007085758e-03
      -6.4230985211442002e-03 -1.6917596902378765e-02
      3.7798661083603838e-03 6.4526900162680022e-04
      -5.3360349733918705e-03 4.0188232447595056e-03
      1.7216334898359054e-02 -3.8361098091531992e-03
      -6.8949143673055048e-03 1.2017644345653387e-02
      -8.1370719784528336e-03 9.4084786214427164e-03
      -7.5943152540345771e-03 1.7867053962896312e-02
      1.7638676962139298e-02 2.4608306027920760e-03
      -8.5901437945429451e-03 -1.5287085989585300e-02
      7.3378311887259103e-03 1.5385858859768847e-02
      1.8216573981364621e-02 3.2094930006621308e-03
      9.0545625957168339e-03 1.3450783786465111e-02
      -1.5390302398091454e-02 -1.0883199770773152e-02
      -2.6654920935125555e-04 3.5390721513987051e-03
      -2.2355546088521057e-03 -1.4255156543143617e-02
      -8.2702565544761943e-03 5.4169582953460518e-03
      1.2033618300465204e-02 1.3412973273088824e-02
      -1.3219131002093735e-02 4.8403326497153563e-03
      3.6637109235614137e-03 -1.5853079908092361e-02
      1.7790355093910172e-02 -1.7298837489074161e-02
      -1.0656777598732115e-02 1.0045054388707187e-02
      -2.2945410692777585e-02 1.1383331053839763e-02
      -1.5458265941101723e-02 -1.6089434437486658e-02
      -3.3299533307529178e-03 -3.6311122259622009e-03
      5.8012283182774134e-03 1.7792320144908506e-02
      1.7491457183419136e-02 1.2521249263971518e-02
      -7.1149942489658726e-03 -5.3150094372478663e-03
      4.0024644340940479e-03 7.7011064838872750e-03
      8.1594330381837745e-03 -8.1614691650543861e-03
      8.4266928181163069e-03 -1.9233646266913013e-02
      1.0538239422743727e-02 -8.1286617753539869e-04
      5.8025809094267430e-03 2.8402516471499649e-03
      2.6229433628565013e-03 -9.4435261142402863e-03
      8.6635795461658543e-04 -1.1303166236043967e-02
      9.5192897756926232e-03 9.3852920131919874e-03
      1.8203282482264387e-03 1.1746471976394186e-02
      -4.4643603523743481e-03 1.4076557199722395e-02
      -7.9614056713036999e-04 1.1756440219664653e-02
      1.3283115955389339e-02 -1.4619432913761188e-02
      -5.7852678541262473e-03 -9.9513091801368223e-03
      -2.3108333437561569e-02 -1.4935604193455300e-02
      1.0141895352378347e-02 2.7710316623469409e-03
      -1.7489249959887328e-02 2.7845259194390765e-03
      7.1138430439488861e-03 8.7185314386666621e-04
      1.2051471024945764e-02 -1.7163787336832798e-02
      2.7718989925694399e-03 -6.9944777180083635e-03
      1.6642458746554265e-02 -1.8026428738245064e-05
      1.8936788313765926e-02 -1.1288462095179554e-02
      4.7254033963511719e-03 -1.0897610254988544e-03
      -7.4612625637455422e-03 1.0585817731488754e-02
      1.5677576533951423e-01 1.7330190623428054e-01
      -1.9840887673258947e-01 2.4720550380472366e-02
      1.7373300722892501e-01 1.6474826646315774e-01
      1.6682904181511832e-01 1.6804213146956579e-01
      1.6834236747841039e-01 1.9046674253290288e-01
      1.2478437089444216e-01 -1.7541642047026348e-01
      1.7735170597262662e-01 1.7612051894648245e-01
      -1.7369630385759269e-01</_>
    <_>
      3.0423354505849221e-01 -3.4787669153745016e-01
      9.7954628325745841e-01 -7.9256873722075710e-02
      -8.8066583401946019e-01 -4.5714448156757570e-01
      -3.1785987756175649e-01 -8.9812317030941946e-01
      2.6176032591473419e-01 -4.9602945552889716e-01
      1.0330356436499548e+00 -9.4159515248475356e-01
      8.5303105428932224e-01 -6.7060165538254987e-02
      2.9581319164703124e-01 -3.9734681453083676e-01
      4.0215486412919466e-01 -7.2808286317145876e-01
      5.1976706702331976e-01 3.3309028160563514e-01
      6.8149767207189529e-02 -4.0784128660301505e-01
      -2.4628081274043928e-01 4.5983757873226605e-01
      1.0833717820143933e+00 2.0960681629130040e-01
      1.1302498588386274e+00 -3.7350984353322403e-01
      -3.1113025885626794e-01 4.3639512265177571e-01
      -8.3089414910118387e-01 3.5058817388673424e-01</_></weights></opencv_ml_ann_mlp>
</opencv_storage>
